digraph Tree {
node [shape=box, style="filled, rounded", color="black", fontname=helvetica] ;
edge [fontname=helvetica] ;
0 [label="X[7] <= 0.0\ngini = 0.5\nsamples = 131\nvalue = [106, 93]", fillcolor="#fcf0e7"] ;
1 [label="X[18] <= 0.0\ngini = 0.24\nsamples = 20\nvalue = [24, 4]", fillcolor="#e9965a"] ;
0 -> 1 [labeldistance=2.5, labelangle=45, headlabel="True"] ;
2 [label="gini = 0.15\nsamples = 18\nvalue = [23, 2]", fillcolor="#e78c4a"] ;
1 -> 2 ;
3 [label="gini = 0.44\nsamples = 2\nvalue = [1, 2]", fillcolor="#9ccef2"] ;
1 -> 3 ;
4 [label="X[2] <= 2.75\ngini = 0.5\nsamples = 111\nvalue = [82, 89]", fillcolor="#eff7fd"] ;
0 -> 4 [labeldistance=2.5, labelangle=-45, headlabel="False"] ;
5 [label="gini = 0.5\nsamples = 100\nvalue = [80, 72]", fillcolor="#fcf2eb"] ;
4 -> 5 ;
6 [label="gini = 0.19\nsamples = 11\nvalue = [2, 17]", fillcolor="#50a9e8"] ;
4 -> 6 ;
}