digraph Tree {
node [shape=box, style="filled, rounded", color="black", fontname=helvetica] ;
edge [fontname=helvetica] ;
0 [label="X[29] <= 0.79\ngini = 0.49\nsamples = 128\nvalue = [111, 88]", fillcolor="#fae5d6"] ;
1 [label="X[22] <= 0.1\ngini = 0.49\nsamples = 74\nvalue = [51, 65]", fillcolor="#d4eaf9"] ;
0 -> 1 [labeldistance=2.5, labelangle=45, headlabel="True"] ;
2 [label="X[16] <= 0.0\ngini = 0.3\nsamples = 45\nvalue = [13, 57]", fillcolor="#66b3eb"] ;
1 -> 2 ;
3 [label="gini = 0.0\nsamples = 4\nvalue = [7, 0]", fillcolor="#e58139"] ;
2 -> 3 ;
4 [label="gini = 0.17\nsamples = 41\nvalue = [6, 57]", fillcolor="#4ea7e8"] ;
2 -> 4 ;
5 [label="X[0] <= 0.11\ngini = 0.29\nsamples = 29\nvalue = [38, 8]", fillcolor="#ea9c63"] ;
1 -> 5 ;
6 [label="gini = 0.5\nsamples = 7\nvalue = [6, 6]", fillcolor="#ffffff"] ;
5 -> 6 ;
7 [label="gini = 0.11\nsamples = 22\nvalue = [32, 2]", fillcolor="#e78945"] ;
5 -> 7 ;
8 [label="X[17] <= 0.0\ngini = 0.4\nsamples = 54\nvalue = [60, 23]", fillcolor="#efb185"] ;
0 -> 8 [labeldistance=2.5, labelangle=-45, headlabel="False"] ;
9 [label="X[8] <= 0.0\ngini = 0.5\nsamples = 26\nvalue = [23, 19]", fillcolor="#fae9dd"] ;
8 -> 9 ;
10 [label="gini = 0.42\nsamples = 15\nvalue = [7, 16]", fillcolor="#90c8f0"] ;
9 -> 10 ;
11 [label="gini = 0.27\nsamples = 11\nvalue = [16, 3]", fillcolor="#ea995e"] ;
9 -> 11 ;
12 [label="X[16] <= 0.0\ngini = 0.18\nsamples = 28\nvalue = [37, 4]", fillcolor="#e88f4e"] ;
8 -> 12 ;
13 [label="gini = 0.44\nsamples = 7\nvalue = [6, 3]", fillcolor="#f2c09c"] ;
12 -> 13 ;
14 [label="gini = 0.06\nsamples = 21\nvalue = [31, 1]", fillcolor="#e6853f"] ;
12 -> 14 ;
}